{"moveNN":{"layers":[{"neurons":[{"weights":[-3.2960924184738047,1.4013817254800847,7.658278983421264,-0.6561152055094019,-2.0625550097834413,2.2873105334466572,4.893993568427133,2.5428904265022494,-0.11405666564131556,6.970527252882971,1.377809607508752,7.370741737359074,3.153810448888996],"bias":-0.6686952729952722},{"weights":[-3.2359863491961383,2.04773780011303,-2.4807905920198037,7.5829743295859044,-2.195567337893118,1.4947200628277146,-1.6888195875246108,6.688151398434119,-3.495459101025024,-4.237897946359331,-2.455441174281529,-2.4703135202082462,-4.844954292267357],"bias":2.8498672637915163},{"weights":[2.363705911113528,-3.32953817113514,3.079745812780338,-1.4633980999640614,-4.1237980833764025,3.6585323792870534,-0.009051365868411043,0.5769643807507285,-4.879950718001944,6.242088192416074,3.6679231411131354,-3.2782419748291574,0.7205163978676321],"bias":5.5608831684295925},{"weights":[-0.5328552789172905,4.77104540966721,2.22351658567655,-0.6506129854655673,0.2216935546802301,4.92422973427579,-3.9604611916910786,-2.8018757603823823,-6.439764715388962,-2.5041304317480204,-4.28386993611479,0.5155421466342824,4.393893151280581],"bias":-1.3304062671426273},{"weights":[-0.6409811714790519,0.5045614578325572,-3.290399508048991,-3.2261889502423617,2.78480942951405,1.6093307172312536,-2.8119660912554876,8.307930498910425,2.324246213644132,4.799929290192569,1.1164075267439222,-1.598041263848427,-1.3967469405211024],"bias":-0.9413879397931886},{"weights":[-2.6125424895182094,0.1388508301927911,-3.729532527309054,0.5375677856333352,6.770099400364015,0.08737434050749138,-2.160475028931695,3.2856949337698795,3.889346820165084,-0.13776238674573804,7.757782348798026,-5.508120512161502,1.9281278325560807],"bias":3.5679456401525114},{"weights":[-6.975231895464573,-1.4661459579329963,-1.1301837710187328,1.6920364894249318,-5.683026519751468,9.790606019260109,-2.9527238581319386,2.35511225697116,-5.104865348744616,-3.4621514055016434,-9.154347943040838,-2.2462856037175474,1.6578434798741788],"bias":3.6440076784011417},{"weights":[-1.1236001341617592,-4.579745790830263,3.3320767577821577,5.234448240222127,-1.39742144416733,4.834683303747382,0.2624794158371824,-1.245059990677543,-0.4194225811401675,5.784149331028422,-4.008635848597882,5.16542740910087,-2.4608760192458012],"bias":-2.4741316206644246},{"weights":[-3.4214130104053826,-0.04272248984871618,-6.066896648180485,3.5851472651154856,-3.5787283416231013,3.65331049023139,-2.038186113628142,-2.1783070060039345,2.507533280552219,-3.7758778257948755,4.96804162709359,-2.180668387519522,3.3629518428027225],"bias":-3.1636152910455397},{"weights":[1.6744399658329867,-10.602483744328108,0.25099644725804704,-7.173862771759922,1.2080415869846257,-1.6702489944651369,2.325342974602769,-4.213471214039238,0.22932668277960122,2.1100643487883177,-1.4158158440100521,8.47392448084723,2.5440213855378087],"bias":-0.47242369693677966},{"weights":[5.397922465005063,-3.5050381239845754,-0.09341839810966279,-0.4319315531485566,-1.6735874765898302,2.628478076239349,5.983734622391816,-0.5207155689529293,6.186682518729248,0.7503499058097465,2.5815107142063614,-2.2004258989299483,4.694350093798366],"bias":4.9411329097431675},{"weights":[5.87170561631508,1.4585787160750125,-3.089062124079312,-1.7313377740617888,0.13725716140402433,-6.8202175009144534,-0.49509283766703827,1.2654950412232548,0.6755631804331088,-2.8500777428461035,-2.7594819071355214,5.272003583302152,-0.5350194729079578],"bias":2.7710680503461464},{"weights":[3.252677204064909,1.661105957071449,-0.9428184385887344,-7.574343602713842,2.1136712964232336,0.36175237908100244,0.1979034162627531,1.2806241314976394,-2.904551162984752,-1.2449240512693682,0.41512901275359293,5.1411709372849055,-0.6696312695568312],"bias":1.600160092476966}]},{"neurons":[{"weights":[-3.407961076266803,11.94979993730882,7.2276870292731115,6.720940761134026,-3.189524710213764,3.2098701698260186,-3.9349027160066083,-8.394236086991867,10.364386531898537,-6.0193173465861,0.6581722912549341,4.485661931221399,0.954736453459275],"bias":-3.7750957368828226},{"weights":[4.589331727195885,2.4038278277183647,-1.335418563456961,9.948161608988421,-1.988614877596056,5.614113777519246,-4.563661656800966,-5.908675162752947,9.593351052162653,3.4334573202183805,-5.404184752538976,8.269744965366174,10.40024547979262],"bias":-5.066735372053159},{"weights":[-0.9369742816180195,4.480387087667719,6.857678658567629,10.347699554059199,-0.4978768291318669,4.192881283783736,5.636624824483802,-5.069886149709324,-1.4356766544036375,-6.123099515520189,13.269130791244725,-9.862881535620323,-12.256327424440725],"bias":-5.086716543371404},{"weights":[-0.1487652836181983,0.11436624097851955,2.9630329410546765,2.668188015403442,-1.3227837135587175,-1.8345622173213365,7.807247260562926,2.0631345678807387,9.113872973324925,2.9575981165964507,10.675728984394471,-10.139116015192737,7.544503795678434],"bias":-8.399980498416662}]}]},"shotNN":{"layers":[{"neurons":[{"weights":[12.905387485102473,-5.476000059928299,-2.871783872178491,15.107935126622138,11.997297428785467,25.072660080027216,17.34616776521763,40.837032707225795,-8.162113803543123,-4.213220303896155],"bias":44.11430202439392}]}]}}